=== Run information ===

Scheme:       weka.classifiers.trees.J48 -C 0.25 -M 2
Relation:     caso1-weka.filters.unsupervised.attribute.Remove-R7
Instances:    1028
Attributes:   6
              dia
              hora
              tipologia
              parroquia_urbana
              causas
              nro_heridos
Test mode:    split 80.0% train, remainder test

=== Classifier model (full training set) ===

J48 pruned tree
------------------

tipologia = atropello
|   causas = imprudencia del peaton: sabado (47.0/33.0)
|   causas = negligencia del conductor: jueves (2.0)
|   causas = condiciones climaticas desfavorables: sabado (0.0)
|   causas = fallas mecanicas no previsibles: sabado (0.0)
|   causas = imprudencia del conductor: miercoles (14.0/11.0)
|   causas = conducir en estado de embriaguez: domingo (8.0/4.0)
|   causas = no ceder el derecho de via: sabado (0.0)
|   causas = cambio brusco e indebido de carril: sabado (0.0)
|   causas = no mantener la distancia reglamentaria: sabado (0.0)
|   causas = inobservancia de leyes de transito: sabado (0.0)
|   causas = no respetar las senales de transito: miercoles (2.0)
|   causas = conducir en exceso de velocidad: martes (6.0/4.0)
|   causas = invadir carril de circulacion: sabado (0.0)
|   causas = razones desconocidas: miercoles (2.0/1.0)
|   causas = no respetar las ordenes del agente de transito: sabado (0.0)
|   causas = impericia del conductor: sabado (0.0)
tipologia = choque lateral perpendicular
|   hora = h13
|   |   parroquia_urbana = punzara: miercoles (0.0)
|   |   parroquia_urbana = sucre: miercoles (3.0/1.0)
|   |   parroquia_urbana = san sebastian: lunes (1.0)
|   |   parroquia_urbana = carigan: miercoles (0.0)
|   |   parroquia_urbana = el sagrario
|   |   |   causas = imprudencia del peaton: viernes (0.0)
|   |   |   causas = negligencia del conductor: viernes (0.0)
|   |   |   causas = condiciones climaticas desfavorables: viernes (0.0)
|   |   |   causas = fallas mecanicas no previsibles: viernes (0.0)
|   |   |   causas = imprudencia del conductor: jueves (2.0/1.0)
|   |   |   causas = conducir en estado de embriaguez: viernes (0.0)
|   |   |   causas = no ceder el derecho de via: viernes (2.0)
|   |   |   causas = cambio brusco e indebido de carril: viernes (0.0)
|   |   |   causas = no mantener la distancia reglamentaria: viernes (0.0)
|   |   |   causas = inobservancia de leyes de transito: viernes (0.0)
|   |   |   causas = no respetar las senales de transito: viernes (0.0)
|   |   |   causas = conducir en exceso de velocidad: viernes (0.0)
|   |   |   causas = invadir carril de circulacion: viernes (0.0)
|   |   |   causas = razones desconocidas: viernes (0.0)
|   |   |   causas = no respetar las ordenes del agente de transito: viernes (0.0)
|   |   |   causas = impericia del conductor: viernes (0.0)
|   |   parroquia_urbana = el valle: miercoles (0.0)
|   hora = h20: sabado (7.0/4.0)
|   hora = h18: viernes (8.0/5.0)
|   hora = h21: sabado (9.0/6.0)
|   hora = h19
|   |   causas = imprudencia del peaton: sabado (0.0)
|   |   causas = negligencia del conductor: sabado (0.0)
|   |   causas = condiciones climaticas desfavorables: sabado (0.0)
|   |   causas = fallas mecanicas no previsibles: sabado (0.0)
|   |   causas = imprudencia del conductor: sabado (6.0/3.0)
|   |   causas = conducir en estado de embriaguez: jueves (3.0/2.0)
|   |   causas = no ceder el derecho de via: domingo (1.0)
|   |   causas = cambio brusco e indebido de carril: sabado (0.0)
|   |   causas = no mantener la distancia reglamentaria: sabado (0.0)
|   |   causas = inobservancia de leyes de transito: sabado (0.0)
|   |   causas = no respetar las senales de transito: jueves (1.0)
|   |   causas = conducir en exceso de velocidad: sabado (0.0)
|   |   causas = invadir carril de circulacion: sabado (0.0)
|   |   causas = razones desconocidas: sabado (0.0)
|   |   causas = no respetar las ordenes del agente de transito: sabado (0.0)
|   |   causas = impericia del conductor: sabado (0.0)
|   hora = h02
|   |   parroquia_urbana = punzara: sabado (0.0)
|   |   parroquia_urbana = sucre: domingo (1.0)
|   |   parroquia_urbana = san sebastian: sabado (3.0/1.0)
|   |   parroquia_urbana = carigan: sabado (0.0)
|   |   parroquia_urbana = el sagrario: domingo (5.0/3.0)
|   |   parroquia_urbana = el valle: sabado (0.0)
|   hora = h17: jueves (6.0/4.0)
|   hora = h12
|   |   parroquia_urbana = punzara: jueves (1.0)
|   |   parroquia_urbana = sucre: jueves (2.0)
|   |   parroquia_urbana = san sebastian: lunes (1.0)
|   |   parroquia_urbana = carigan: jueves (0.0)
|   |   parroquia_urbana = el sagrario: sabado (2.0/1.0)
|   |   parroquia_urbana = el valle: viernes (1.0)
|   hora = h03: jueves (3.0/2.0)
|   hora = h16: sabado (10.0/6.0)
|   hora = h01: sabado (9.0/5.0)
|   hora = h08
|   |   parroquia_urbana = punzara: martes (1.0)
|   |   parroquia_urbana = sucre: viernes (1.0)
|   |   parroquia_urbana = san sebastian: lunes (2.0)
|   |   parroquia_urbana = carigan: miercoles (1.0)
|   |   parroquia_urbana = el sagrario: sabado (4.0/2.0)
|   |   parroquia_urbana = el valle: lunes (0.0)
|   hora = h05: lunes (8.0/5.0)
|   hora = h14
|   |   causas = imprudencia del peaton: domingo (0.0)
|   |   causas = negligencia del conductor: jueves (1.0)
|   |   causas = condiciones climaticas desfavorables: domingo (0.0)
|   |   causas = fallas mecanicas no previsibles: domingo (0.0)
|   |   causas = imprudencia del conductor: domingo (2.0/1.0)
|   |   causas = conducir en estado de embriaguez: sabado (1.0)
|   |   causas = no ceder el derecho de via: viernes (7.0/5.0)
|   |   causas = cambio brusco e indebido de carril: miercoles (1.0)
|   |   causas = no mantener la distancia reglamentaria: domingo (0.0)
|   |   causas = inobservancia de leyes de transito: domingo (0.0)
|   |   causas = no respetar las senales de transito: martes (3.0/1.0)
|   |   causas = conducir en exceso de velocidad: domingo (0.0)
|   |   causas = invadir carril de circulacion: domingo (0.0)
|   |   causas = razones desconocidas: domingo (0.0)
|   |   causas = no respetar las ordenes del agente de transito: domingo (0.0)
|   |   causas = impericia del conductor: domingo (0.0)
|   hora = h23: sabado (9.0/5.0)
|   hora = h07
|   |   causas = imprudencia del peaton: jueves (0.0)
|   |   causas = negligencia del conductor: jueves (0.0)
|   |   causas = condiciones climaticas desfavorables: jueves (0.0)
|   |   causas = fallas mecanicas no previsibles: jueves (0.0)
|   |   causas = imprudencia del conductor: viernes (2.0/1.0)
|   |   causas = conducir en estado de embriaguez: viernes (2.0/1.0)
|   |   causas = no ceder el derecho de via: jueves (5.0/3.0)
|   |   causas = cambio brusco e indebido de carril: jueves (0.0)
|   |   causas = no mantener la distancia reglamentaria: jueves (0.0)
|   |   causas = inobservancia de leyes de transito: jueves (0.0)
|   |   causas = no respetar las senales de transito: sabado (2.0/1.0)
|   |   causas = conducir en exceso de velocidad: jueves (1.0)
|   |   causas = invadir carril de circulacion: jueves (0.0)
|   |   causas = razones desconocidas: jueves (0.0)
|   |   causas = no respetar las ordenes del agente de transito: jueves (0.0)
|   |   causas = impericia del conductor: jueves (0.0)
|   hora = h10: viernes (14.0/10.0)
|   hora = h15
|   |   nro_heridos = 1h: domingo (4.0/1.0)
|   |   nro_heridos = 0h: sabado (2.0)
|   |   nro_heridos = 3h: sabado (0.0)
|   |   nro_heridos = 2h: sabado (3.0/2.0)
|   |   nro_heridos = 4h: sabado (0.0)
|   |   nro_heridos = 5h: sabado (0.0)
|   |   nro_heridos = 6h: sabado (0.0)
|   hora = h00: domingo (6.0/3.0)
|   hora = h11
|   |   causas = imprudencia del peaton: jueves (0.0)
|   |   causas = negligencia del conductor: jueves (0.0)
|   |   causas = condiciones climaticas desfavorables: jueves (0.0)
|   |   causas = fallas mecanicas no previsibles: jueves (0.0)
|   |   causas = imprudencia del conductor: jueves (3.0/1.0)
|   |   causas = conducir en estado de embriaguez: jueves (0.0)
|   |   causas = no ceder el derecho de via: domingo (2.0)
|   |   causas = cambio brusco e indebido de carril: jueves (0.0)
|   |   causas = no mantener la distancia reglamentaria: jueves (0.0)
|   |   causas = inobservancia de leyes de transito: jueves (0.0)
|   |   causas = no respetar las senales de transito: miercoles (4.0/3.0)
|   |   causas = conducir en exceso de velocidad: jueves (1.0)
|   |   causas = invadir carril de circulacion: jueves (0.0)
|   |   causas = razones desconocidas: jueves (0.0)
|   |   causas = no respetar las ordenes del agente de transito: jueves (0.0)
|   |   causas = impericia del conductor: jueves (0.0)
|   hora = h09: domingo (13.0/7.0)
|   hora = h22
|   |   causas = imprudencia del peaton: sabado (0.0)
|   |   causas = negligencia del conductor: sabado (0.0)
|   |   causas = condiciones climaticas desfavorables: sabado (0.0)
|   |   causas = fallas mecanicas no previsibles: sabado (0.0)
|   |   causas = imprudencia del conductor: sabado (1.0)
|   |   causas = conducir en estado de embriaguez: sabado (6.0/3.0)
|   |   causas = no ceder el derecho de via: jueves (4.0/1.0)
|   |   causas = cambio brusco e indebido de carril: sabado (0.0)
|   |   causas = no mantener la distancia reglamentaria: sabado (0.0)
|   |   causas = inobservancia de leyes de transito: sabado (0.0)
|   |   causas = no respetar las senales de transito: jueves (5.0/3.0)
|   |   causas = conducir en exceso de velocidad: viernes (3.0/2.0)
|   |   causas = invadir carril de circulacion: sabado (0.0)
|   |   causas = razones desconocidas: sabado (0.0)
|   |   causas = no respetar las ordenes del agente de transito: sabado (0.0)
|   |   causas = impericia del conductor: sabado (0.0)
|   hora = h06
|   |   parroquia_urbana = punzara: lunes (2.0/1.0)
|   |   parroquia_urbana = sucre: domingo (2.0)
|   |   parroquia_urbana = san sebastian: domingo (0.0)
|   |   parroquia_urbana = carigan: domingo (0.0)
|   |   parroquia_urbana = el sagrario: miercoles (1.0)
|   |   parroquia_urbana = el valle: sabado (1.0)
|   hora = h04: jueves (5.0/4.0)
tipologia = estrellamiento
|   hora = h13: miercoles (4.0/3.0)
|   hora = h20
|   |   causas = imprudencia del peaton: jueves (0.0)
|   |   causas = negligencia del conductor: jueves (0.0)
|   |   causas = condiciones climaticas desfavorables: jueves (0.0)
|   |   causas = fallas mecanicas no previsibles: jueves (0.0)
|   |   causas = imprudencia del conductor: sabado (2.0/1.0)
|   |   causas = conducir en estado de embriaguez: jueves (4.0/2.0)
|   |   causas = no ceder el derecho de via: jueves (0.0)
|   |   causas = cambio brusco e indebido de carril: jueves (0.0)
|   |   causas = no mantener la distancia reglamentaria: jueves (0.0)
|   |   causas = inobservancia de leyes de transito: lunes (1.0)
|   |   causas = no respetar las senales de transito: jueves (0.0)
|   |   causas = conducir en exceso de velocidad: viernes (3.0/2.0)
|   |   causas = invadir carril de circulacion: jueves (0.0)
|   |   causas = razones desconocidas: jueves (0.0)
|   |   causas = no respetar las ordenes del agente de transito: jueves (0.0)
|   |   causas = impericia del conductor: jueves (0.0)
|   hora = h18
|   |   causas = imprudencia del peaton: jueves (0.0)
|   |   causas = negligencia del conductor: jueves (0.0)
|   |   causas = condiciones climaticas desfavorables: jueves (0.0)
|   |   causas = fallas mecanicas no previsibles: jueves (0.0)
|   |   causas = imprudencia del conductor: lunes (1.0)
|   |   causas = conducir en estado de embriaguez: viernes (2.0/1.0)
|   |   causas = no ceder el derecho de via: jueves (0.0)
|   |   causas = cambio brusco e indebido de carril: jueves (0.0)
|   |   causas = no mantener la distancia reglamentaria: jueves (0.0)
|   |   causas = inobservancia de leyes de transito: jueves (0.0)
|   |   causas = no respetar las senales de transito: jueves (0.0)
|   |   causas = conducir en exceso de velocidad: jueves (3.0/1.0)
|   |   causas = invadir carril de circulacion: jueves (0.0)
|   |   causas = razones desconocidas: jueves (0.0)
|   |   causas = no respetar las ordenes del agente de transito: jueves (0.0)
|   |   causas = impericia del conductor: jueves (0.0)
|   hora = h21
|   |   causas = imprudencia del peaton: viernes (0.0)
|   |   causas = negligencia del conductor: viernes (0.0)
|   |   causas = condiciones climaticas desfavorables: viernes (0.0)
|   |   causas = fallas mecanicas no previsibles: miercoles (2.0/1.0)
|   |   causas = imprudencia del conductor: viernes (0.0)
|   |   causas = conducir en estado de embriaguez: domingo (2.0)
|   |   causas = no ceder el derecho de via: viernes (0.0)
|   |   causas = cambio brusco e indebido de carril: viernes (0.0)
|   |   causas = no mantener la distancia reglamentaria: viernes (0.0)
|   |   causas = inobservancia de leyes de transito: martes (1.0)
|   |   causas = no respetar las senales de transito: viernes (0.0)
|   |   causas = conducir en exceso de velocidad: viernes (4.0/2.0)
|   |   causas = invadir carril de circulacion: viernes (0.0)
|   |   causas = razones desconocidas: viernes (0.0)
|   |   causas = no respetar las ordenes del agente de transito: viernes (0.0)
|   |   causas = impericia del conductor: viernes (0.0)
|   hora = h19
|   |   causas = imprudencia del peaton: domingo (0.0)
|   |   causas = negligencia del conductor: domingo (0.0)
|   |   causas = condiciones climaticas desfavorables: domingo (0.0)
|   |   causas = fallas mecanicas no previsibles: jueves (2.0/1.0)
|   |   causas = imprudencia del conductor: viernes (2.0/1.0)
|   |   causas = conducir en estado de embriaguez: domingo (5.0/2.0)
|   |   causas = no ceder el derecho de via: domingo (0.0)
|   |   causas = cambio brusco e indebido de carril: domingo (0.0)
|   |   causas = no mantener la distancia reglamentaria: domingo (0.0)
|   |   causas = inobservancia de leyes de transito: domingo (0.0)
|   |   causas = no respetar las senales de transito: domingo (0.0)
|   |   causas = conducir en exceso de velocidad
|   |   |   parroquia_urbana = punzara: miercoles (2.0/1.0)
|   |   |   parroquia_urbana = sucre: viernes (2.0/1.0)
|   |   |   parroquia_urbana = san sebastian: miercoles (0.0)
|   |   |   parroquia_urbana = carigan: jueves (1.0)
|   |   |   parroquia_urbana = el sagrario: martes (1.0)
|   |   |   parroquia_urbana = el valle: miercoles (0.0)
|   |   causas = invadir carril de circulacion: domingo (0.0)
|   |   causas = razones desconocidas: domingo (0.0)
|   |   causas = no respetar las ordenes del agente de transito: domingo (0.0)
|   |   causas = impericia del conductor: domingo (0.0)
|   hora = h02: sabado (14.0/7.0)
|   hora = h17: miercoles (3.0/2.0)
|   hora = h12
|   |   causas = imprudencia del peaton: sabado (0.0)
|   |   causas = negligencia del conductor: sabado (0.0)
|   |   causas = condiciones climaticas desfavorables: sabado (0.0)
|   |   causas = fallas mecanicas no previsibles: sabado (0.0)
|   |   causas = imprudencia del conductor: viernes (2.0/1.0)
|   |   causas = conducir en estado de embriaguez: jueves (1.0)
|   |   causas = no ceder el derecho de via: sabado (0.0)
|   |   causas = cambio brusco e indebido de carril: sabado (0.0)
|   |   causas = no mantener la distancia reglamentaria: sabado (0.0)
|   |   causas = inobservancia de leyes de transito: sabado (0.0)
|   |   causas = no respetar las senales de transito: sabado (0.0)
|   |   causas = conducir en exceso de velocidad: sabado (2.0)
|   |   causas = invadir carril de circulacion: sabado (0.0)
|   |   causas = razones desconocidas: sabado (0.0)
|   |   causas = no respetar las ordenes del agente de transito: sabado (0.0)
|   |   causas = impericia del conductor: sabado (0.0)
|   hora = h03
|   |   causas = imprudencia del peaton: jueves (0.0)
|   |   causas = negligencia del conductor: jueves (0.0)
|   |   causas = condiciones climaticas desfavorables: jueves (0.0)
|   |   causas = fallas mecanicas no previsibles: jueves (0.0)
|   |   causas = imprudencia del conductor: jueves (1.0)
|   |   causas = conducir en estado de embriaguez: martes (6.0/3.0)
|   |   causas = no ceder el derecho de via: jueves (0.0)
|   |   causas = cambio brusco e indebido de carril: jueves (0.0)
|   |   causas = no mantener la distancia reglamentaria: miercoles (1.0)
|   |   causas = inobservancia de leyes de transito: jueves (0.0)
|   |   causas = no respetar las senales de transito: jueves (0.0)
|   |   causas = conducir en exceso de velocidad: sabado (12.0/8.0)
|   |   causas = invadir carril de circulacion: jueves (0.0)
|   |   causas = razones desconocidas: jueves (0.0)
|   |   causas = no respetar las ordenes del agente de transito: jueves (0.0)
|   |   causas = impericia del conductor: jueves (0.0)
|   hora = h16: domingo (7.0/3.0)
|   hora = h01: domingo (15.0/11.0)
|   hora = h08: sabado (5.0/3.0)
|   hora = h05: domingo (15.0/8.0)
|   hora = h14: viernes (7.0/4.0)
|   hora = h23: viernes (11.0/6.0)
|   hora = h07: sabado (7.0/4.0)
|   hora = h10: viernes (4.0/2.0)
|   hora = h15
|   |   parroquia_urbana = punzara: sabado (3.0/1.0)
|   |   parroquia_urbana = sucre: miercoles (4.0/3.0)
|   |   parroquia_urbana = san sebastian: jueves (2.0/1.0)
|   |   parroquia_urbana = carigan: martes (3.0/1.0)
|   |   parroquia_urbana = el sagrario: miercoles (2.0/1.0)
|   |   parroquia_urbana = el valle: lunes (2.0)
|   hora = h00: domingo (12.0/8.0)
|   hora = h11
|   |   parroquia_urbana = punzara: martes (1.0)
|   |   parroquia_urbana = sucre: jueves (3.0/1.0)
|   |   parroquia_urbana = san sebastian: viernes (2.0/1.0)
|   |   parroquia_urbana = carigan: jueves (0.0)
|   |   parroquia_urbana = el sagrario: martes (1.0)
|   |   parroquia_urbana = el valle: jueves (0.0)
|   hora = h09: domingo (4.0/2.0)
|   hora = h22: jueves (12.0/8.0)
|   hora = h06
|   |   causas = imprudencia del peaton: miercoles (0.0)
|   |   causas = negligencia del conductor: miercoles (0.0)
|   |   causas = condiciones climaticas desfavorables: miercoles (0.0)
|   |   causas = fallas mecanicas no previsibles: miercoles (0.0)
|   |   causas = imprudencia del conductor
|   |   |   nro_heridos = 1h: miercoles (2.0/1.0)
|   |   |   nro_heridos = 0h: lunes (2.0/1.0)
|   |   |   nro_heridos = 3h: miercoles (0.0)
|   |   |   nro_heridos = 2h: miercoles (0.0)
|   |   |   nro_heridos = 4h: miercoles (0.0)
|   |   |   nro_heridos = 5h: miercoles (0.0)
|   |   |   nro_heridos = 6h: miercoles (0.0)
|   |   causas = conducir en estado de embriaguez: sabado (2.0)
|   |   causas = no ceder el derecho de via: miercoles (0.0)
|   |   causas = cambio brusco e indebido de carril: miercoles (0.0)
|   |   causas = no mantener la distancia reglamentaria: miercoles (0.0)
|   |   causas = inobservancia de leyes de transito: miercoles (0.0)
|   |   causas = no respetar las senales de transito: miercoles (0.0)
|   |   causas = conducir en exceso de velocidad: viernes (7.0/4.0)
|   |   causas = invadir carril de circulacion: miercoles (0.0)
|   |   causas = razones desconocidas: miercoles (0.0)
|   |   causas = no respetar las ordenes del agente de transito: miercoles (0.0)
|   |   causas = impericia del conductor: miercoles (0.0)
|   hora = h04
|   |   parroquia_urbana = punzara: domingo (3.0/1.0)
|   |   parroquia_urbana = sucre: viernes (4.0/3.0)
|   |   parroquia_urbana = san sebastian: lunes (1.0)
|   |   parroquia_urbana = carigan: viernes (1.0)
|   |   parroquia_urbana = el sagrario: jueves (4.0/2.0)
|   |   parroquia_urbana = el valle: miercoles (2.0)
tipologia = choque frontal longitudinal: lunes (7.0/4.0)
tipologia = choque lateral angular
|   hora = h13
|   |   parroquia_urbana = punzara: viernes (1.0)
|   |   parroquia_urbana = sucre: sabado (3.0/1.0)
|   |   parroquia_urbana = san sebastian: domingo (1.0)
|   |   parroquia_urbana = carigan: sabado (0.0)
|   |   parroquia_urbana = el sagrario: lunes (5.0/3.0)
|   |   parroquia_urbana = el valle: viernes (3.0/2.0)
|   hora = h20
|   |   causas = imprudencia del peaton: viernes (1.0)
|   |   causas = negligencia del conductor: sabado (0.0)
|   |   causas = condiciones climaticas desfavorables: sabado (0.0)
|   |   causas = fallas mecanicas no previsibles: sabado (0.0)
|   |   causas = imprudencia del conductor: miercoles (3.0/2.0)
|   |   causas = conducir en estado de embriaguez: sabado (3.0/2.0)
|   |   causas = no ceder el derecho de via: jueves (2.0/1.0)
|   |   causas = cambio brusco e indebido de carril: sabado (0.0)
|   |   causas = no mantener la distancia reglamentaria: sabado (0.0)
|   |   causas = inobservancia de leyes de transito: sabado (0.0)
|   |   causas = no respetar las senales de transito: lunes (2.0)
|   |   causas = conducir en exceso de velocidad: sabado (1.0)
|   |   causas = invadir carril de circulacion: sabado (0.0)
|   |   causas = razones desconocidas: martes (1.0)
|   |   causas = no respetar las ordenes del agente de transito: sabado (0.0)
|   |   causas = impericia del conductor: sabado (0.0)
|   hora = h18
|   |   causas = imprudencia del peaton: martes (0.0)
|   |   causas = negligencia del conductor: martes (0.0)
|   |   causas = condiciones climaticas desfavorables: sabado (1.0)
|   |   causas = fallas mecanicas no previsibles: martes (0.0)
|   |   causas = imprudencia del conductor: martes (6.0/3.0)
|   |   causas = conducir en estado de embriaguez: viernes (3.0/1.0)
|   |   causas = no ceder el derecho de via: sabado (2.0/1.0)
|   |   causas = cambio brusco e indebido de carril: martes (0.0)
|   |   causas = no mantener la distancia reglamentaria: martes (0.0)
|   |   causas = inobservancia de leyes de transito: martes (0.0)
|   |   causas = no respetar las senales de transito: martes (0.0)
|   |   causas = conducir en exceso de velocidad: martes (0.0)
|   |   causas = invadir carril de circulacion: martes (0.0)
|   |   causas = razones desconocidas: martes (0.0)
|   |   causas = no respetar las ordenes del agente de transito: martes (0.0)
|   |   causas = impericia del conductor: martes (0.0)
|   hora = h21
|   |   parroquia_urbana = punzara: viernes (2.0/1.0)
|   |   parroquia_urbana = sucre: sabado (2.0/1.0)
|   |   parroquia_urbana = san sebastian: domingo (2.0)
|   |   parroquia_urbana = carigan: miercoles (2.0/1.0)
|   |   parroquia_urbana = el sagrario: jueves (1.0)
|   |   parroquia_urbana = el valle: martes (1.0)
|   hora = h19
|   |   causas = imprudencia del peaton: sabado (0.0)
|   |   causas = negligencia del conductor: sabado (0.0)
|   |   causas = condiciones climaticas desfavorables: sabado (0.0)
|   |   causas = fallas mecanicas no previsibles: sabado (0.0)
|   |   causas = imprudencia del conductor: sabado (4.0/2.0)
|   |   causas = conducir en estado de embriaguez: jueves (2.0/1.0)
|   |   causas = no ceder el derecho de via: sabado (0.0)
|   |   causas = cambio brusco e indebido de carril: sabado (0.0)
|   |   causas = no mantener la distancia reglamentaria: sabado (0.0)
|   |   causas = inobservancia de leyes de transito: sabado (0.0)
|   |   causas = no respetar las senales de transito: sabado (0.0)
|   |   causas = conducir en exceso de velocidad: viernes (1.0)
|   |   causas = invadir carril de circulacion: sabado (0.0)
|   |   causas = razones desconocidas: sabado (0.0)
|   |   causas = no respetar las ordenes del agente de transito: sabado (0.0)
|   |   causas = impericia del conductor: sabado (0.0)
|   hora = h02: martes (3.0/1.0)
|   hora = h17
|   |   nro_heridos = 1h: viernes (2.0/1.0)
|   |   nro_heridos = 0h: lunes (4.0/2.0)
|   |   nro_heridos = 3h: lunes (0.0)
|   |   nro_heridos = 2h: lunes (0.0)
|   |   nro_heridos = 4h: lunes (0.0)
|   |   nro_heridos = 5h: lunes (0.0)
|   |   nro_heridos = 6h: lunes (0.0)
|   hora = h12
|   |   parroquia_urbana = punzara: sabado (4.0/2.0)
|   |   parroquia_urbana = sucre: martes (4.0/2.0)
|   |   parroquia_urbana = san sebastian: jueves (5.0/2.0)
|   |   parroquia_urbana = carigan: miercoles (1.0)
|   |   parroquia_urbana = el sagrario: miercoles (2.0/1.0)
|   |   parroquia_urbana = el valle: sabado (1.0)
|   hora = h03: domingo (3.0/1.0)
|   hora = h16
|   |   causas = imprudencia del peaton: sabado (0.0)
|   |   causas = negligencia del conductor: sabado (0.0)
|   |   causas = condiciones climaticas desfavorables: sabado (0.0)
|   |   causas = fallas mecanicas no previsibles: sabado (0.0)
|   |   causas = imprudencia del conductor: sabado (0.0)
|   |   causas = conducir en estado de embriaguez: sabado (3.0/1.0)
|   |   causas = no ceder el derecho de via: lunes (1.0)
|   |   causas = cambio brusco e indebido de carril: sabado (0.0)
|   |   causas = no mantener la distancia reglamentaria: sabado (0.0)
|   |   causas = inobservancia de leyes de transito: sabado (0.0)
|   |   causas = no respetar las senales de transito: sabado (0.0)
|   |   causas = conducir en exceso de velocidad: domingo (2.0/1.0)
|   |   causas = invadir carril de circulacion: sabado (0.0)
|   |   causas = razones desconocidas: sabado (0.0)
|   |   causas = no respetar las ordenes del agente de transito: sabado (0.0)
|   |   causas = impericia del conductor: sabado (0.0)
|   hora = h01: sabado (10.0/4.0)
|   hora = h08: domingo (7.0/4.0)
|   hora = h05: viernes (3.0/2.0)
|   hora = h14: domingo (13.0/6.0)
|   hora = h23: viernes (9.0/5.0)
|   hora = h07: lunes (12.0/8.0)
|   hora = h10
|   |   causas = imprudencia del peaton: viernes (0.0)
|   |   causas = negligencia del conductor: viernes (0.0)
|   |   causas = condiciones climaticas desfavorables: viernes (0.0)
|   |   causas = fallas mecanicas no previsibles: viernes (0.0)
|   |   causas = imprudencia del conductor: jueves (2.0/1.0)
|   |   causas = conducir en estado de embriaguez: domingo (1.0)
|   |   causas = no ceder el derecho de via: viernes (2.0/1.0)
|   |   causas = cambio brusco e indebido de carril: viernes (0.0)
|   |   causas = no mantener la distancia reglamentaria: viernes (0.0)
|   |   causas = inobservancia de leyes de transito: viernes (0.0)
|   |   causas = no respetar las senales de transito: viernes (2.0)
|   |   causas = conducir en exceso de velocidad: lunes (1.0)
|   |   causas = invadir carril de circulacion: viernes (0.0)
|   |   causas = razones desconocidas: viernes (0.0)
|   |   causas = no respetar las ordenes del agente de transito: viernes (0.0)
|   |   causas = impericia del conductor: viernes (0.0)
|   hora = h15
|   |   causas = imprudencia del peaton: miercoles (0.0)
|   |   causas = negligencia del conductor: miercoles (0.0)
|   |   causas = condiciones climaticas desfavorables: miercoles (0.0)
|   |   causas = fallas mecanicas no previsibles: miercoles (0.0)
|   |   causas = imprudencia del conductor: viernes (1.0)
|   |   causas = conducir en estado de embriaguez: miercoles (1.0)
|   |   causas = no ceder el derecho de via: lunes (3.0/1.0)
|   |   causas = cambio brusco e indebido de carril: jueves (2.0/1.0)
|   |   causas = no mantener la distancia reglamentaria: miercoles (0.0)
|   |   causas = inobservancia de leyes de transito: miercoles (0.0)
|   |   causas = no respetar las senales de transito: miercoles (1.0)
|   |   causas = conducir en exceso de velocidad: jueves (2.0/1.0)
|   |   causas = invadir carril de circulacion: miercoles (0.0)
|   |   causas = razones desconocidas: miercoles (0.0)
|   |   causas = no respetar las ordenes del agente de transito: miercoles (0.0)
|   |   causas = impericia del conductor: miercoles (0.0)
|   hora = h00: sabado (4.0/2.0)
|   hora = h11: jueves (9.0/6.0)
|   hora = h09: jueves (5.0/3.0)
|   hora = h22: jueves (6.0/4.0)
|   hora = h06: domingo (7.0/4.0)
|   hora = h04: domingo (4.0/1.0)
tipologia = roce negativo: miercoles (29.0/20.0)
tipologia = colision
|   hora = h13: jueves (0.0)
|   hora = h20: sabado (1.0)
|   hora = h18: martes (1.0)
|   hora = h21: jueves (0.0)
|   hora = h19: miercoles (1.0)
|   hora = h02: jueves (0.0)
|   hora = h17: jueves (2.0/1.0)
|   hora = h12: jueves (3.0/2.0)
|   hora = h03: jueves (0.0)
|   hora = h16: viernes (3.0/1.0)
|   hora = h01: jueves (0.0)
|   hora = h08: lunes (1.0)
|   hora = h05: domingo (1.0)
|   hora = h14: sabado (1.0)
|   hora = h23: jueves (0.0)
|   hora = h07: lunes (1.0)
|   hora = h10: sabado (2.0/1.0)
|   hora = h15: jueves (0.0)
|   hora = h00: martes (1.0)
|   hora = h11: jueves (0.0)
|   hora = h09: jueves (0.0)
|   hora = h22: jueves (0.0)
|   hora = h06: jueves (0.0)
|   hora = h04: jueves (0.0)
tipologia = choque por alcance
|   parroquia_urbana = punzara: viernes (11.0/7.0)
|   parroquia_urbana = sucre: sabado (20.0/15.0)
|   parroquia_urbana = san sebastian: miercoles (6.0/4.0)
|   parroquia_urbana = carigan: jueves (9.0/6.0)
|   parroquia_urbana = el sagrario: jueves (11.0/7.0)
|   parroquia_urbana = el valle: sabado (10.0/7.0)
tipologia = roce positivo: sabado (3.0/2.0)
tipologia = perdida de carril
|   hora = h13: martes (2.0)
|   hora = h20: sabado (3.0/1.0)
|   hora = h18
|   |   causas = imprudencia del peaton: jueves (0.0)
|   |   causas = negligencia del conductor: jueves (0.0)
|   |   causas = condiciones climaticas desfavorables: jueves (0.0)
|   |   causas = fallas mecanicas no previsibles: jueves (0.0)
|   |   causas = imprudencia del conductor: jueves (0.0)
|   |   causas = conducir en estado de embriaguez: jueves (3.0/1.0)
|   |   causas = no ceder el derecho de via: jueves (0.0)
|   |   causas = cambio brusco e indebido de carril: jueves (0.0)
|   |   causas = no mantener la distancia reglamentaria: jueves (0.0)
|   |   causas = inobservancia de leyes de transito: jueves (0.0)
|   |   causas = no respetar las senales de transito: jueves (0.0)
|   |   causas = conducir en exceso de velocidad: miercoles (2.0/1.0)
|   |   causas = invadir carril de circulacion: jueves (0.0)
|   |   causas = razones desconocidas: jueves (0.0)
|   |   causas = no respetar las ordenes del agente de transito: jueves (0.0)
|   |   causas = impericia del conductor: jueves (0.0)
|   hora = h21: jueves (6.0/4.0)
|   hora = h19: sabado (3.0/2.0)
|   hora = h02: domingo (4.0/2.0)
|   hora = h17: domingo (3.0/2.0)
|   hora = h12
|   |   causas = imprudencia del peaton: miercoles (0.0)
|   |   causas = negligencia del conductor: miercoles (0.0)
|   |   causas = condiciones climaticas desfavorables: miercoles (0.0)
|   |   causas = fallas mecanicas no previsibles: sabado (2.0/1.0)
|   |   causas = imprudencia del conductor: miercoles (0.0)
|   |   causas = conducir en estado de embriaguez: miercoles (0.0)
|   |   causas = no ceder el derecho de via: miercoles (0.0)
|   |   causas = cambio brusco e indebido de carril: miercoles (0.0)
|   |   causas = no mantener la distancia reglamentaria: miercoles (0.0)
|   |   causas = inobservancia de leyes de transito: miercoles (0.0)
|   |   causas = no respetar las senales de transito: miercoles (0.0)
|   |   causas = conducir en exceso de velocidad: miercoles (2.0/1.0)
|   |   causas = invadir carril de circulacion: miercoles (0.0)
|   |   causas = razones desconocidas: miercoles (0.0)
|   |   causas = no respetar las ordenes del agente de transito: miercoles (0.0)
|   |   causas = impericia del conductor: miercoles (0.0)
|   hora = h03: sabado (5.0/3.0)
|   hora = h16: sabado (2.0/1.0)
|   hora = h01
|   |   nro_heridos = 1h: viernes (2.0/1.0)
|   |   nro_heridos = 0h: viernes (2.0)
|   |   nro_heridos = 3h: martes (1.0)
|   |   nro_heridos = 2h: domingo (1.0)
|   |   nro_heridos = 4h: domingo (1.0)
|   |   nro_heridos = 5h: viernes (0.0)
|   |   nro_heridos = 6h: viernes (0.0)
|   hora = h08: jueves (2.0/1.0)
|   hora = h05: viernes (7.0/4.0)
|   hora = h14: jueves (4.0/2.0)
|   hora = h23: lunes (4.0/1.0)
|   hora = h07: sabado (3.0/2.0)
|   hora = h10: domingo (2.0/1.0)
|   hora = h15: domingo (1.0)
|   hora = h00: jueves (6.0/4.0)
|   hora = h11: sabado (1.0)
|   hora = h09: viernes (1.0)
|   hora = h22
|   |   nro_heridos = 1h: sabado (3.0/1.0)
|   |   nro_heridos = 0h: jueves (5.0/3.0)
|   |   nro_heridos = 3h: jueves (0.0)
|   |   nro_heridos = 2h: jueves (0.0)
|   |   nro_heridos = 4h: jueves (0.0)
|   |   nro_heridos = 5h: jueves (0.0)
|   |   nro_heridos = 6h: jueves (0.0)
|   hora = h06: domingo (4.0/1.0)
|   hora = h04: viernes (2.0/1.0)
tipologia = choque frontal excentrico: sabado (31.0/22.0)
tipologia = caida de pasajero: sabado (3.0/1.0)
tipologia = perdida de pista: domingo (5.0/3.0)
tipologia = atipico
|   hora = h13: miercoles (0.0)
|   hora = h20: miercoles (0.0)
|   hora = h18: miercoles (3.0/1.0)
|   hora = h21: miercoles (0.0)
|   hora = h19: sabado (1.0)
|   hora = h02: domingo (1.0)
|   hora = h17: sabado (2.0/1.0)
|   hora = h12: miercoles (1.0)
|   hora = h03: miercoles (0.0)
|   hora = h16: miercoles (1.0)
|   hora = h01: miercoles (0.0)
|   hora = h08: viernes (1.0)
|   hora = h05: miercoles (0.0)
|   hora = h14: miercoles (0.0)
|   hora = h23: miercoles (0.0)
|   hora = h07: miercoles (0.0)
|   hora = h10: miercoles (0.0)
|   hora = h15: martes (1.0)
|   hora = h00: viernes (2.0/1.0)
|   hora = h11: miercoles (0.0)
|   hora = h09: domingo (1.0)
|   hora = h22: viernes (1.0)
|   hora = h06: miercoles (0.0)
|   hora = h04: miercoles (0.0)
tipologia = encunetamiento: jueves (2.0/1.0)
tipologia = arrollamiento
|   nro_heridos = 1h: miercoles (4.0/2.0)
|   nro_heridos = 0h: jueves (2.0/1.0)
|   nro_heridos = 3h: miercoles (0.0)
|   nro_heridos = 2h: miercoles (0.0)
|   nro_heridos = 4h: miercoles (0.0)
|   nro_heridos = 5h: miercoles (0.0)
|   nro_heridos = 6h: miercoles (0.0)
tipologia = rozamiento: jueves (6.0/4.0)
tipologia = volcamiento lateral: miercoles (5.0/3.0)
tipologia = volcamiento longitudinal
|   nro_heridos = 1h: domingo (2.0)
|   nro_heridos = 0h: viernes (2.0/1.0)
|   nro_heridos = 3h: domingo (0.0)
|   nro_heridos = 2h: domingo (0.0)
|   nro_heridos = 4h: domingo (0.0)
|   nro_heridos = 5h: domingo (0.0)
|   nro_heridos = 6h: domingo (0.0)
tipologia = volcamiento: jueves (1.0)
tipologia = choque frontal: viernes (1.0)

Number of Leaves  : 	596

Size of the tree : 	645


Time taken to build model: 0 seconds

=== Evaluation on test split ===

Time taken to test model on test split: 0 seconds

=== Summary ===

Correctly Classified Instances          30               14.5631 %
Incorrectly Classified Instances       176               85.4369 %
Kappa statistic                         -0.0221
Mean absolute error                      0.2483
Root mean squared error                  0.4063
Relative absolute error                102.4322 %
Root relative squared error            116.6634 %
Total Number of Instances              206     

=== Detailed Accuracy By Class ===

                 TP Rate  FP Rate  Precision  Recall   F-Measure  MCC      ROC Area  PRC Area  Class
                 0,056    0,128    0,040      0,056    0,047      -0,062   0,374     0,074     miercoles
                 0,130    0,142    0,103      0,130    0,115      -0,011   0,547     0,129     jueves
                 0,160    0,110    0,167      0,160    0,163      0,050    0,480     0,135     viernes
                 0,313    0,354    0,211      0,313    0,252      -0,037   0,447     0,215     sabado
                 0,188    0,149    0,188      0,188    0,188      0,038    0,503     0,161     domingo
                 0,029    0,105    0,053      0,029    0,037      -0,100   0,451     0,160     lunes
                 0,000    0,033    0,000      0,000    0,000      -0,064   0,453     0,111     martes
Weighted Avg.    0,146    0,168    0,123      0,146    0,131      -0,028   0,466     0,153     

=== Confusion Matrix ===

  a  b  c  d  e  f  g   <-- classified as
  1  3  3  5  1  4  1 |  a = miercoles
  3  3  2  8  5  1  1 |  b = jueves
  2  6  4  7  5  1  0 |  c = viernes
  5  8  5 15  8  5  2 |  d = sabado
  4  4  4 10  6  3  1 |  e = domingo
  7  1  2 19  4  1  1 |  f = lunes
  3  4  4  7  3  4  0 |  g = martes

